{
  "v": "5.9.3",
  "fr": 30,
  "ip": 0,
  "op": 61,
  "w": 640,
  "h": 480,
  "nm": "rock_woman_transplant",
  "assets": [],
  "layers": [
    {
      "ind": 1,
      "ty": 4,
      "nm": "Layer 6",
      "parent": 6,
      "sr": 1,
      "ks": {
        "o": {
          "a": 0,
          "k": 100
        },
        "r": {
          "a": 1,
          "k": [
            {
              "i": {
                "x": [
                  0.833
                ],
                "y": [
                  0.833
                ]
              },
              "o": {
                "x": [
                  0.167
                ],
                "y": [
                  0.167
                ]
              },
              "t": 0,
              "s": [
                -30
              ]
            },
            {
              "i": {
                "x": [
                  0.833
                ],
                "y": [
                  0.833
                ]
              },
              "o": {
                "x": [
                  0.167
                ],
                "y": [
                  0.167
                ]
              },
              "t": 15,
              "s": [
                30
              ]
            },
            {
              "i": {
                "x": [
                  0.833
                ],
                "y": [
                  0.833
                ]
              },
              "o": {
                "x": [
                  0.167
                ],
                "y": [
                  0.167
                ]
              },
              "t": 30,
              "s": [
                -30
              ]
            },
            {
              "i": {
                "x": [
                  0.833
                ],
                "y": [
                  0.833
                ]
              },
              "o": {
                "x": [
                  0.167
                ],
                "y": [
                  0.167
                ]
              },
              "t": 45,
              "s": [
                30
              ]
            },
            {
              "t": 60,
              "s": [
                -30
              ]
            }
          ]
        },
        "p": {
          "a": 0,
          "k": [
            -10.629,
            -81.754,
            0
          ],
          "l": 2
        },
        "a": {
          "a": 0,
          "k": [
            -1.5,
            -43.5,
            0
          ],
          "l": 2
        },
        "s": {
          "a": 0,
          "k": [
            100,
            100,
            100
          ],
          "l": 2
        }
      },
      "ao": 0,
      "shapes": [
        {
          "ty": "gr",
          "it": [
            {
              "ty": "sh",
              "nm": "P",
              "ind": 0,
              "ks": {
                "k": {
                  "i": [
                    [
                      0,
                      0
                    ],
                    [
                      0,
                      -27.014126617432915
                    ],
                    [
                      0,
                      0
                    ],
                    [
                      11.997563646765135,
                      5.0424946432286255
                    ],
                    [
                      0,
                      0
                    ],
                    [
                      5.545119742042855,
                      -1.5788832743915127
                    ]
                  ],
                  "o": [
                    [
                      0,
                      0
                    ],
                    [
                      0,
                      0
                    ],
                    [
                      0,
                      0
                    ],
                    [
                      0,
                      0
                    ],
                    [
                      -5.617520033284793,
                      -1.2976359891824423
                    ],
                    [
                      0,
                      0
                    ]
                  ],
                  "v": [
                    [
                      -9.134981995007282,
                      -61.33321276263783
                    ],
                    [
                      -26.040450000000003,
                      -28.990703172456833
                    ],
                    [
                      23.040450000000003,
                      -28.990703172456833
                    ],
                    [
                      11.042886353234866,
                      -61.20929687955066
                    ],
                    [
                      8.225772456833784,
                      -61.85997129186603
                    ],
                    [
                      -8.792008820470148,
                      -61.430674693155815
                    ]
                  ],
                  "c": true
                },
                "a": 0
              }
            },
            {
              "ty": "fl",
              "nm": "F",
              "bm": 0,
              "c": {
                "a": 0,
                "k": [
                  0.918,
                  0.918,
                  0.918,
                  1
                ]
              },
              "o": {
                "a": 0,
                "k": 100
              },
              "r": 1
            },
            {
              "ty": "sh",
              "nm": "P",
              "ind": 0,
              "ks": {
                "k": {
                  "i": [
                    [
                      0,
                      0
                    ],
                    [
                      0,
                      -68.92507726232579
                    ],
                    [
                      0,
                      0
                    ],
                    [
                      13.911530320366134,
                      12.864974828375287
                    ]
                  ],
                  "o": [
                    [
                      0,
                      0
                    ],
                    [
                      18.337694279176205,
                      0
                    ],
                    [
                      0,
                      0
                    ],
                    [
                      -12.063930580403579,
                      -11.156606417724154
                    ]
                  ],
                  "v": [
                    [
                      -11.122277168712296,
                      -83.71882588932806
                    ],
                    [
                      -22.69379294778448,
                      -3.281174110671934
                    ],
                    [
                      16.266845828999376,
                      -3.281174110671934
                    ],
                    [
                      12.274155408778865,
                      -83.40277077179114
                    ]
                  ],
                  "c": true
                },
                "a": 0
              }
            },
            {
              "ty": "fl",
              "nm": "F",
              "bm": 0,
              "c": {
                "a": 0,
                "k": [
                  0.984,
                  0.627,
                  0.624,
                  1
                ]
              },
              "o": {
                "a": 0,
                "k": 100
              },
              "r": 1
            },
            {
              "ty": "tr",
              "p": {
                "a": 0,
                "k": [
                  0,
                  0
                ],
                "ix": 2
              },
              "a": {
                "a": 0,
                "k": [
                  0,
                  0
                ],
                "ix": 1
              },
              "s": {
                "a": 0,
                "k": [
                  100,
                  100
                ],
                "ix": 3
              },
              "r": {
                "a": 0,
                "k": 0,
                "ix": 6
              },
              "o": {
                "a": 0,
                "k": 100,
                "ix": 7
              },
              "sk": {
                "a": 0,
                "k": 0,
                "ix": 4
              },
              "sa": {
                "a": 0,
                "k": 0,
                "ix": 5
              },
              "nm": "Transform"
            }
          ],
          "nm": "Group 1",
          "np": 5
        },
        {
          "ty": "st",
          "c": {
            "a": 0,
            "k": [
              0,
              0,
              0,
              1
            ]
          },
          "o": {
            "a": 0,
            "k": 100
          },
          "w": {
            "a": 0,
            "k": 4
          },
          "lc": 1,
          "lj": 1,
          "ml": 4,
          "nm": "Stroke 1"
        }
      ],
      "ip": 0,
      "op": 61,
      "st": 0,
      "ct": 1
    },
    {
      "ind": 2,
      "ty": 4,
      "nm": "Layer 7",
      "parent": 1,
      "sr": 1,
      "ks": {
        "o": {
          "a": 0,
          "k": 100
        },
        "r": {
          "a": 1,
          "k": [
            {
              "i": {
                "x": [
                  0.833
                ],
                "y": [
                  0.833
                ]
              },
              "o": {
                "x": [
                  0.167
                ],
                "y": [
                  0.167
                ]
              },
              "t": 0,
              "s": [
                -10
              ]
            },
            {
              "i": {
                "x": [
                  0.833
                ],
                "y": [
                  0.833
                ]
              },
              "o": {
                "x": [
                  0.167
                ],
                "y": [
                  0.167
                ]
              },
              "t": 15,
              "s": [
                -20
              ]
            },
            {
              "i": {
                "x": [
                  0.833
                ],
                "y": [
                  0.833
                ]
              },
              "o": {
                "x": [
                  0.167
                ],
                "y": [
                  0.167
                ]
              },
              "t": 30,
              "s": [
                -10
              ]
            },
            {
              "i": {
                "x": [
                  0.833
                ],
                "y": [
                  0.833
                ]
              },
              "o": {
                "x": [
                  0.167
                ],
                "y": [
                  0.167
                ]
              },
              "t": 45,
              "s": [
                -20
              ]
            },
            {
              "t": 60,
              "s": [
                -10
              ]
            }
          ]
        },
        "p": {
          "a": 0,
          "k": [
            -1,
            41.373,
            0
          ],
          "l": 2
        },
        "a": {
          "a": 0,
          "k": [
            -1,
            -42,
            0
          ],
          "l": 2
        },
        "s": {
          "a": 0,
          "k": [
            100,
            100,
            100
          ],
          "l": 2
        }
      },
      "ao": 0,
      "shapes": [
        {
          "ty": "gr",
          "it": [
            {
              "ty": "sh",
              "nm": "P",
              "ind": 0,
              "ks": {
                "k": {
                  "i": [
                    [
                      0,
                      -16.75312695237555
                    ],
                    [
                      11.468732971561563,
                      0
                    ],
                    [
                      0,
                      16.75312695237555
                    ],
                    [
                      -11.468732971561563,
                      0
                    ]
                  ],
                  "o": [
                    [
                      0,
                      16.75312695237555
                    ],
                    [
                      -11.468732971561563,
                      0
                    ],
                    [
                      0,
                      -16.75312695237555
                    ],
                    [
                      11.468732971561563,
                      0
                    ]
                  ],
                  "v": [
                    [
                      18.743131167622188,
                      -40.98131568144406
                    ],
                    [
                      -2.0233844161889087,
                      -10.647380305386836
                    ],
                    [
                      -22.789900000000003,
                      -40.98131568144406
                    ],
                    [
                      -2.0233844161889087,
                      -71.31525105750129
                    ]
                  ],
                  "c": true
                },
                "a": 0
              }
            },
            {
              "ty": "fl",
              "nm": "F",
              "bm": 0,
              "c": {
                "a": 0,
                "k": [
                  0.984,
                  0.627,
                  0.624,
                  1
                ]
              },
              "o": {
                "a": 0,
                "k": 100
              },
              "r": 1
            },
            {
              "ty": "sh",
              "nm": "P",
              "ind": 0,
              "ks": {
                "k": {
                  "i": [
                    [
                      0,
                      0
                    ],
                    [
                      0,
                      73.4758841755123
                    ],
                    [
                      0,
                      0
                    ],
                    [
                      -10.152705634330479,
                      -13.71439014588182
                    ]
                  ],
                  "o": [
                    [
                      0,
                      0
                    ],
                    [
                      -13.382909575977752,
                      0
                    ],
                    [
                      0,
                      0
                    ],
                    [
                      6.157127899188286,
                      4.99793539876256
                    ]
                  ],
                  "v": [
                    [
                      -2.8337801975364707,
                      17.886170303683954
                    ],
                    [
                      20.789900000000003,
                      -101.88567555656469
                    ],
                    [
                      -22.789900000000003,
                      -102.65946005108702
                    ],
                    [
                      -9.335252091729581,
                      18.65946005108703
                    ]
                  ],
                  "c": true
                },
                "a": 0
              }
            },
            {
              "ty": "fl",
              "nm": "F",
              "bm": 0,
              "c": {
                "a": 0,
                "k": [
                  0.984,
                  0.627,
                  0.624,
                  1
                ]
              },
              "o": {
                "a": 0,
                "k": 100
              },
              "r": 1
            },
            {
              "ty": "sh",
              "nm": "P",
              "ind": 0,
              "ks": {
                "k": {
                  "i": [
                    [
                      0,
                      0
                    ],
                    [
                      -2.8037319248453203,
                      -2.6384863870125455
                    ],
                    [
                      0,
                      0
                    ],
                    [
                      -2.844795935743884,
                      0.49474711925980597
                    ],
                    [
                      0,
                      0
                    ],
                    [
                      -2.968482715558836,
                      0.3042694783447807
                    ],
                    [
                      0,
                      0
                    ],
                    [
                      -2.597422376113981,
                      0.6184338990747574
                    ],
                    [
                      1.2368677981495149,
                      4.952913410909917
                    ],
                    [
                      0.5773698881761936,
                      -1.5332213225861389
                    ],
                    [
                      -0.00742120678889709,
                      -0.08757024010898565
                    ],
                    [
                      0,
                      0
                    ],
                    [
                      1.1131810183345634,
                      4.422049751944146
                    ],
                    [
                      0,
                      0
                    ]
                  ],
                  "o": [
                    [
                      0,
                      0
                    ],
                    [
                      2.8037319248453203,
                      2.6384863870125455
                    ],
                    [
                      0,
                      0
                    ],
                    [
                      2.844795935743884,
                      -0.49474711925980597
                    ],
                    [
                      0,
                      0
                    ],
                    [
                      2.968482715558836,
                      -0.3042694783447807
                    ],
                    [
                      0,
                      0
                    ],
                    [
                      2.597422376113981,
                      -0.6184338990747574
                    ],
                    [
                      0.6268446001021741,
                      1.022147548390759
                    ],
                    [
                      -0.031169068513367777,
                      0.08212802179712779
                    ],
                    [
                      0.14644514730090255,
                      1.7217199750241248
                    ],
                    [
                      0,
                      0
                    ],
                    [
                      -1.1131810183345634,
                      -4.422049751944146
                    ],
                    [
                      0,
                      0
                    ]
                  ],
                  "v": [
                    [
                      -7.768387965033776,
                      -52.04138753249702
                    ],
                    [
                      -11.726364919112223,
                      -31.5915101050122
                    ],
                    [
                      -8.304693842311405,
                      -31.5915101050122
                    ],
                    [
                      -5.707271466197424,
                      -29.20039727762956
                    ],
                    [
                      -3.3572226497133455,
                      -30.560951855594027
                    ],
                    [
                      -1.0071738332292675,
                      -29.143501358914683
                    ],
                    [
                      1.095501423624908,
                      -31.303072534483732
                    ],
                    [
                      4.311357698813646,
                      -29.942517956519268
                    ],
                    [
                      4.311357698813646,
                      -40.57413880229324
                    ],
                    [
                      4.952549965374356,
                      -38.30572326048703
                    ],
                    [
                      4.91544393142987,
                      -38.04449678151785
                    ],
                    [
                      5.67933348356701,
                      -34.27254474428109
                    ],
                    [
                      8.145647873077142,
                      -40.548411952091726
                    ],
                    [
                      2.5178993914968504,
                      -52.8552465436794
                    ]
                  ],
                  "c": true
                },
                "a": 0
              }
            },
            {
              "ty": "fl",
              "nm": "F",
              "bm": 0,
              "c": {
                "a": 0,
                "k": [
                  0.984,
                  0.627,
                  0.624,
                  1
                ]
              },
              "o": {
                "a": 0,
                "k": 100
              },
              "r": 1
            },
            {
              "ty": "tr",
              "p": {
                "a": 0,
                "k": [
                  0,
                  0
                ],
                "ix": 2
              },
              "a": {
                "a": 0,
                "k": [
                  0,
                  0
                ],
                "ix": 1
              },
              "s": {
                "a": 0,
                "k": [
                  100,
                  100
                ],
                "ix": 3
              },
              "r": {
                "a": 0,
                "k": 0,
                "ix": 6
              },
              "o": {
                "a": 0,
                "k": 100,
                "ix": 7
              },
              "sk": {
                "a": 0,
                "k": 0,
                "ix": 4
              },
              "sa": {
                "a": 0,
                "k": 0,
                "ix": 5
              },
              "nm": "Transform"
            }
          ],
          "nm": "Group 1",
          "np": 7
        },
        {
          "ty": "st",
          "c": {
            "a": 0,
            "k": [
              0,
              0,
              0,
              1
            ]
          },
          "o": {
            "a": 0,
            "k": 100
          },
          "w": {
            "a": 0,
            "k": 4
          },
          "lc": 1,
          "lj": 1,
          "ml": 4,
          "nm": "Stroke 1"
        }
      ],
      "ip": 0,
      "op": 61,
      "st": 0,
      "ct": 1
    },
    {
      "ind": 3,
      "ty": 4,
      "nm": "Head",
      "parent": 6,
      "sr": 1,
      "ks": {
        "o": {
          "a": 0,
          "k": 100
        },
        "r": {
          "a": 1,
          "k": [
            {
              "i": {
                "x": [
                  0.833
                ],
                "y": [
                  0.833
                ]
              },
              "o": {
                "x": [
                  0.167
                ],
                "y": [
                  0.167
                ]
              },
              "t": 0,
              "s": [
                0
              ]
            },
            {
              "i": {
                "x": [
                  0.833
                ],
                "y": [
                  0.833
                ]
              },
              "o": {
                "x": [
                  0.167
                ],
                "y": [
                  0.167
                ]
              },
              "t": 7.5,
              "s": [
                -10
              ]
            },
            {
              "i": {
                "x": [
                  0.833
                ],
                "y": [
                  0.833
                ]
              },
              "o": {
                "x": [
                  0.167
                ],
                "y": [
                  0.167
                ]
              },
              "t": 15,
              "s": [
                0
              ]
            },
            {
              "i": {
                "x": [
                  0.833
                ],
                "y": [
                  0.833
                ]
              },
              "o": {
                "x": [
                  0.167
                ],
                "y": [
                  0.167
                ]
              },
              "t": 22.5,
              "s": [
                -10
              ]
            },
            {
              "i": {
                "x": [
                  0.833
                ],
                "y": [
                  0.833
                ]
              },
              "o": {
                "x": [
                  0.167
                ],
                "y": [
                  0.167
                ]
              },
              "t": 30,
              "s": [
                0
              ]
            },
            {
              "i": {
                "x": [
                  0.833
                ],
                "y": [
                  0.833
                ]
              },
              "o": {
                "x": [
                  0.167
                ],
                "y": [
                  0.167
                ]
              },
              "t": 37.5,
              "s": [
                -10
              ]
            },
            {
              "i": {
                "x": [
                  0.833
                ],
                "y": [
                  0.833
                ]
              },
              "o": {
                "x": [
                  0.167
                ],
                "y": [
                  0.167
                ]
              },
              "t": 45,
              "s": [
                0
              ]
            },
            {
              "i": {
                "x": [
                  0.833
                ],
                "y": [
                  0.833
                ]
              },
              "o": {
                "x": [
                  0.167
                ],
                "y": [
                  0.167
                ]
              },
              "t": 52.5,
              "s": [
                -10
              ]
            },
            {
              "t": 60,
              "s": [
                0
              ]
            }
          ]
        },
        "p": {
          "a": 0,
          "k": [
            6.169,
            -113.558,
            0
          ],
          "l": 2
        },
        "a": {
          "a": 0,
          "k": [
            350.587,
            -206.665,
            0
          ],
          "l": 2
        },
        "s": {
          "a": 0,
          "k": [
            100,
            100,
            100
          ],
          "l": 2
        }
      },
      "ao": 0,
      "shapes": [
        {
          "ty": "gr",
          "it": [
            {
              "ty": "sh",
              "nm": "P",
              "ind": 0,
              "ks": {
                "k": {
                  "i": [
                    [
                      0.1770851567204683,
                      0.060186913006956666
                    ],
                    [
                      0,
                      0
                    ],
                    [
                      -0.060186913006956666,
                      0.1770851567204683
                    ],
                    [
                      0,
                      0
                    ],
                    [
                      -0.1770851567204683,
                      -0.060186913006956666
                    ],
                    [
                      0,
                      0
                    ],
                    [
                      0.060186913006956666,
                      -0.1770851567204683
                    ],
                    [
                      0,
                      0
                    ]
                  ],
                  "o": [
                    [
                      0,
                      0
                    ],
                    [
                      -0.1770851567204683,
                      -0.060186913006956666
                    ],
                    [
                      0,
                      0
                    ],
                    [
                      0.060186913006956666,
                      -0.1770851567204683
                    ],
                    [
                      0,
                      0
                    ],
                    [
                      0.1770851567204683,
                      0.060186913006956666
                    ],
                    [
                      0,
                      0
                    ],
                    [
                      -0.060186913006956666,
                      0.1770851567204683
                    ]
                  ],
                  "v": [
                    [
                      316.7608104910402,
                      -191.00877329119035
                    ],
                    [
                      316.7304627236367,
                      -191.01911526779156
                    ],
                    [
                      316.51811312211214,
                      -191.45051132454142
                    ],
                    [
                      316.7027428355335,
                      -191.99321078520416
                    ],
                    [
                      317.1341388922834,
                      -192.2055603867287
                    ],
                    [
                      317.1644866596869,
                      -192.1952184101275
                    ],
                    [
                      317.37683626121145,
                      -191.76382235337763
                    ],
                    [
                      317.1922065477901,
                      -191.2211228927149
                    ]
                  ],
                  "c": true
                },
                "a": 0
              }
            },
            {
              "ty": "fl",
              "nm": "F",
              "bm": 0,
              "c": {
                "a": 0,
                "k": [
                  0,
                  0,
                  0,
                  1
                ]
              },
              "o": {
                "a": 0,
                "k": 100
              },
              "r": 1
            },
            {
              "ty": "sh",
              "nm": "P",
              "ind": 0,
              "ks": {
                "k": {
                  "i": [
                    [
                      0,
                      0
                    ],
                    [
                      -0.3268742768377816,
                      0.9607865803110519
                    ],
                    [
                      0,
                      0
                    ],
                    [
                      0.9607865803110519,
                      0.3268742768377816
                    ],
                    [
                      0,
                      0
                    ],
                    [
                      1.2518030202446888,
                      -2.289137181464589
                    ],
                    [
                      0.2665178232308053,
                      -1.4188005112639912
                    ],
                    [
                      0,
                      0
                    ],
                    [
                      0,
                      0
                    ]
                  ],
                  "o": [
                    [
                      0.9607865803110519,
                      0.3268742768377816
                    ],
                    [
                      0,
                      0
                    ],
                    [
                      0.3268742768377816,
                      -0.9607865803110519
                    ],
                    [
                      0,
                      0
                    ],
                    [
                      -0.4667452718539485,
                      -0.1587747719183519
                    ],
                    [
                      0.7993839290923963,
                      0.8371914828967663
                    ],
                    [
                      0,
                      0
                    ],
                    [
                      0,
                      0
                    ],
                    [
                      0,
                      0
                    ]
                  ],
                  "v": [
                    [
                      317.009696091869,
                      -186.26562069474213
                    ],
                    [
                      319.3507974672396,
                      -187.41824246397536
                    ],
                    [
                      321.6851172186094,
                      -194.4557032301888
                    ],
                    [
                      320.7245001788984,
                      -198.1815274562194
                    ],
                    [
                      315.8125699151306,
                      -199.85251961001256
                    ],
                    [
                      312.087,
                      -192.6651849533818
                    ],
                    [
                      313.1115338459184,
                      -188.30002312467727
                    ],
                    [
                      314.6007784764906,
                      -184.10372373359226
                    ],
                    [
                      316.4528399911046,
                      -183.35816894500607
                    ]
                  ],
                  "c": true
                },
                "a": 0
              }
            },
            {
              "ty": "fl",
              "nm": "F",
              "bm": 0,
              "c": {
                "a": 0,
                "k": [
                  0.984,
                  0.627,
                  0.624,
                  1
                ]
              },
              "o": {
                "a": 0,
                "k": 100
              },
              "r": 1
            },
            {
              "ty": "sh",
              "nm": "P",
              "ind": 0,
              "ks": {
                "k": {
                  "i": [
                    [
                      0.5587210473645795,
                      -0.028737131703321567
                    ],
                    [
                      0,
                      0
                    ],
                    [
                      0.028737131703321567,
                      0.5587210473645795
                    ],
                    [
                      0,
                      0
                    ],
                    [
                      -0.5587210473645795,
                      0.028737131703321567
                    ],
                    [
                      0,
                      0
                    ],
                    [
                      -0.028737131703321567,
                      -0.5587210473645795
                    ],
                    [
                      0,
                      0
                    ]
                  ],
                  "o": [
                    [
                      0,
                      0
                    ],
                    [
                      -0.5587210473645795,
                      0.028737131703321567
                    ],
                    [
                      0,
                      0
                    ],
                    [
                      -0.028737131703321567,
                      -0.5587210473645795
                    ],
                    [
                      0,
                      0
                    ],
                    [
                      0.5587210473645795,
                      -0.028737131703321567
                    ],
                    [
                      0,
                      0
                    ],
                    [
                      0.028737131703321567,
                      0.5587210473645795
                    ]
                  ],
                  "v": [
                    [
                      317.26638056029867,
                      -189.14942153077544
                    ],
                    [
                      316.67841375943067,
                      -189.11915853367196
                    ],
                    [
                      315.6101384387072,
                      -190.08282730418333
                    ],
                    [
                      315.55503774370084,
                      -191.1544086666072
                    ],
                    [
                      316.5186217439122,
                      -192.22259921703068
                    ],
                    [
                      317.27307741399943,
                      -194.0951751442471
                    ],
                    [
                      318.3412679644229,
                      -193.13150637373573
                    ],
                    [
                      318.22996456051004,
                      -190.2176968514989
                    ]
                  ],
                  "c": true
                },
                "a": 0
              }
            },
            {
              "ty": "fl",
              "nm": "F",
              "bm": 0,
              "c": {
                "a": 0,
                "k": [
                  0.984,
                  0.467,
                  0.475,
                  1
                ]
              },
              "o": {
                "a": 0,
                "k": 100
              },
              "r": 1
            },
            {
              "ty": "sh",
              "nm": "P",
              "ind": 0,
              "ks": {
                "k": {
                  "i": [
                    [
                      0.1770851567204683,
                      0.060186913006956666
                    ],
                    [
                      0,
                      0
                    ],
                    [
                      -0.060186913006956666,
                      0.1770851567204683
                    ],
                    [
                      0,
                      0
                    ],
                    [
                      -0.1770851567204683,
                      -0.060186913006956666
                    ],
                    [
                      0,
                      0
                    ],
                    [
                      0.060186913006956666,
                      -0.1770851567204683
                    ],
                    [
                      0,
                      0
                    ]
                  ],
                  "o": [
                    [
                      0,
                      0
                    ],
                    [
                      -0.1770851567204683,
                      -0.060186913006956666
                    ],
                    [
                      0,
                      0
                    ],
                    [
                      0.060186913006956666,
                      -0.1770851567204683
                    ],
                    [
                      0,
                      0
                    ],
                    [
                      0.1770851567204683,
                      0.060186913006956666
                    ],
                    [
                      0,
                      0
                    ],
                    [
                      -0.060186913006956666,
                      0.1770851567204683
                    ]
                  ],
                  "v": [
                    [
                      316.7608104910402,
                      -191.00877329119035
                    ],
                    [
                      316.7304627236367,
                      -191.01911526779156
                    ],
                    [
                      316.51811312211214,
                      -191.45051132454142
                    ],
                    [
                      316.7027428355335,
                      -191.99321078520416
                    ],
                    [
                      317.1341388922834,
                      -192.2055603867287
                    ],
                    [
                      317.1644866596869,
                      -192.1952184101275
                    ],
                    [
                      317.37683626121145,
                      -191.76382235337763
                    ],
                    [
                      317.1922065477901,
                      -191.2211228927149
                    ]
                  ],
                  "c": true
                },
                "a": 0
              }
            },
            {
              "ty": "fl",
              "nm": "F",
              "bm": 0,
              "c": {
                "a": 0,
                "k": [
                  0,
                  0,
                  0,
                  1
                ]
              },
              "o": {
                "a": 0,
                "k": 100
              },
              "r": 1
            },
            {
              "ty": "sh",
              "nm": "P",
              "ind": 0,
              "ks": {
                "k": {
                  "i": [
                    [
                      -0.11994997451386435,
                      -0.42842909624951975
                    ],
                    [
                      1.1868689704371835,
                      -0.33229957603840865
                    ],
                    [
                      0.11994997451386435,
                      0.42842909624951975
                    ],
                    [
                      -0.42842909624951975,
                      0.11994997451386435
                    ]
                  ],
                  "o": [
                    [
                      0.1853926461214285,
                      0.6622255836765429
                    ],
                    [
                      -0.42842909624951975,
                      0.11994997451386435
                    ],
                    [
                      -0.11994997451386435,
                      -0.42842909624951975
                    ],
                    [
                      0.42842909624951975,
                      -0.11994997451386435
                    ]
                  ],
                  "v": [
                    [
                      318.0966208785946,
                      -192.41223037815257
                    ],
                    [
                      316.9718037677646,
                      -190.41249900092146
                    ],
                    [
                      315.7585712340244,
                      -191.75754935117692
                    ],
                    [
                      316.31712274078893,
                      -192.75046387519168
                    ]
                  ],
                  "c": true
                },
                "a": 0
              }
            },
            {
              "ty": "fl",
              "nm": "F",
              "bm": 0,
              "c": {
                "a": 0,
                "k": [
                  0.984,
                  0.627,
                  0.624,
                  1
                ]
              },
              "o": {
                "a": 0,
                "k": 100
              },
              "r": 1
            },
            {
              "ty": "sh",
              "nm": "P",
              "ind": 0,
              "ks": {
                "k": {
                  "i": [
                    [
                      -0.24159535502792467,
                      -0.8627921134997254
                    ],
                    [
                      0.8627921134997254,
                      -0.24159535502792467
                    ],
                    [
                      0.24159535502792467,
                      0.8627921134997254
                    ],
                    [
                      -0.8627921134997254,
                      0.24159535502792467
                    ]
                  ],
                  "o": [
                    [
                      0.24159535502792467,
                      0.8627921134997254
                    ],
                    [
                      -0.8627921134997254,
                      0.24159535502792467
                    ],
                    [
                      -0.24159535502792467,
                      -0.8627921134997254
                    ],
                    [
                      0.8627921134997254,
                      -0.24159535502792467
                    ]
                  ],
                  "v": [
                    [
                      318.5097913208424,
                      -192.0446663573101
                    ],
                    [
                      317.3849742100124,
                      -190.04485020977896
                    ],
                    [
                      315.3851580624812,
                      -191.16966732060897
                    ],
                    [
                      316.5099751733112,
                      -193.1694834681401
                    ]
                  ],
                  "c": true
                },
                "a": 0
              }
            },
            {
              "ty": "fl",
              "nm": "F",
              "bm": 0,
              "c": {
                "a": 0,
                "k": [
                  0.984,
                  0.467,
                  0.475,
                  1
                ]
              },
              "o": {
                "a": 0,
                "k": 100
              },
              "r": 1
            },
            {
              "ty": "sh",
              "nm": "P",
              "ind": 0,
              "ks": {
                "k": [
                  {
                    "i": {
                      "x": 0.833,
                      "y": 0.833
                    },
                    "o": {
                      "x": 0.167,
                      "y": 0.167
                    },
                    "t": 0,
                    "s": [
                      {
                        "i": [
                          [
                            1.0172436001175775,
                            2.543109000293944
                          ],
                          [
                            3.145995373963628,
                            -0.244392774928248
                          ],
                          [
                            0.7727660548893197,
                            -0.11588100011339404
                          ],
                          [
                            0.7341107980848518,
                            -0.7341107980848518
                          ],
                          [
                            0.8114213116937876,
                            -1.3136853392518415
                          ],
                          [
                            1.5362073767775617,
                            -2.234460337958269
                          ],
                          [
                            1.2364595959429154,
                            -1.3136853392518415
                          ],
                          [
                            0,
                            -2.279642907863491
                          ],
                          [
                            -4.482060072418056,
                            1.6614131098920335
                          ],
                          [
                            -2.7433364489170873,
                            0.6568850547759256
                          ],
                          [
                            -0.7024067058811873,
                            0.2838109644328041
                          ],
                          [
                            -0.21023034402429935,
                            -0.21023034402429935
                          ],
                          [
                            0,
                            0
                          ],
                          [
                            -0.5383761753622279,
                            0.9421371143088965
                          ],
                          [
                            0.26914570253110903,
                            1.2112828168400054
                          ],
                          [
                            0.06730761820777971,
                            1.3458980532555649
                          ],
                          [
                            0.7402142596855572,
                            1.4804285193711144
                          ],
                          [
                            -0.3364533207388888,
                            1.4132056714633445
                          ],
                          [
                            -0.05764380400666273,
                            0.16030063731852826
                          ],
                          [
                            -0.05900012880681949,
                            -0.015682505501812653
                          ],
                          [
                            0,
                            0
                          ],
                          [
                            0,
                            0
                          ],
                          [
                            -1.35632480015677,
                            -0.09723153411123846
                          ],
                          [
                            0,
                            0
                          ]
                        ],
                        "o": [
                          [
                            -1.0172436001175775,
                            -2.543109000293944
                          ],
                          [
                            -0.6955403115803936,
                            -0.154536256917862
                          ],
                          [
                            -0.7727660548893197,
                            0.11588100011339404
                          ],
                          [
                            -0.7341107980848518,
                            0.7341107980848518
                          ],
                          [
                            -0.8114213116937876,
                            1.3136853392518415
                          ],
                          [
                            -1.2751148527473835,
                            1.8546046236143634
                          ],
                          [
                            -1.2364595959429154,
                            1.3136853392518415
                          ],
                          [
                            0,
                            2.279642907863491
                          ],
                          [
                            1.9705703940277672,
                            -0.6568850547759256
                          ],
                          [
                            1.640644386389633,
                            -0.39282557024540454
                          ],
                          [
                            0.002034487200235155,
                            0.3048339988352341
                          ],
                          [
                            0.6056837935700076,
                            0.6056837935700076
                          ],
                          [
                            0,
                            0
                          ],
                          [
                            0.5383761753622279,
                            -0.9421371143088965
                          ],
                          [
                            -0.26914570253110903,
                            -1.2112828168400054
                          ],
                          [
                            -0.06730761820777971,
                            -1.3458980532555649
                          ],
                          [
                            -0.7402142596855572,
                            -1.4804285193711144
                          ],
                          [
                            0.03874002710447774,
                            -0.1627589760188124
                          ],
                          [
                            0.05883058820679989,
                            0.014580491601685277
                          ],
                          [
                            0.99520332211503,
                            0.26499195783062895
                          ],
                          [
                            0,
                            0
                          ],
                          [
                            0,
                            0
                          ],
                          [
                            1.35632480015677,
                            0.09723153411123846
                          ],
                          [
                            0,
                            0
                          ]
                        ],
                        "v": [
                          [
                            389.087,
                            -228.086624353076
                          ],
                          [
                            381.6606978676416,
                            -229.97183105499388
                          ],
                          [
                            379.03332718913794,
                            -229.77863954127156
                          ],
                          [
                            376.32856122672536,
                            -229.0444439728867
                          ],
                          [
                            373.894382061944,
                            -225.21926895524456
                          ],
                          [
                            369.48954773283486,
                            -221.8963579651605
                          ],
                          [
                            368.67821119144105,
                            -215.1732254713834
                          ],
                          [
                            364.8916066603034,
                            -209.3774800597135
                          ],
                          [
                            370.95785409930454,
                            -205.66818604218477
                          ],
                          [
                            375.47856942852707,
                            -208.836560775351
                          ],
                          [
                            378.79868299871083,
                            -209.65739159034587
                          ],
                          [
                            379.06698099824183,
                            -208.88326921065638
                          ],
                          [
                            380.5138404788091,
                            -208.64769254692914
                          ],
                          [
                            379.8408490670313,
                            -210.06089821839248
                          ],
                          [
                            380.5138404788091,
                            -212.4834638520725
                          ],
                          [
                            378.9323657618263,
                            -214.6368837832214
                          ],
                          [
                            378.62956625019126,
                            -218.77545459999976
                          ],
                          [
                            378.2931129294524,
                            -221.77005021814588
                          ],
                          [
                            378.44069802176944,
                            -222.2545124827019
                          ],
                          [
                            378.6176136378899,
                            -222.20924514249666
                          ],
                          [
                            380.59945848181894,
                            -220.77544028813094
                          ],
                          [
                            382.41701848432905,
                            -226.30543080927012
                          ],
                          [
                            384.5094037994709,
                            -224.28442208673653
                          ],
                          [
                            386.24100671777103,
                            -224.28442208673653
                          ]
                        ],
                        "c": true
                      }
                    ]
                  },
                  {
                    "i": {
                      "x": 0.833,
                      "y": 0.833
                    },
                    "o": {
                      "x": 0.167,
                      "y": 0.167
                    },
                    "t": 8,
                    "s": [
                      {
                        "i": [
                          [
                            1.0172436001175775,
                            2.543109000293944
                          ],
                          [
                            3.145995373963628,
                            -0.244392774928248
                          ],
                          [
                            0.7727660548893197,
                            -0.11588100011339404
                          ],
                          [
                            0.7341107980848518,
                            -0.7341107980848518
                          ],
                          [
                            0.8114213116937876,
                            -1.3136853392518415
                          ],
                          [
                            1.5362073767775617,
                            -2.234460337958269
                          ],
                          [
                            1.2364595959429154,
                            -1.3136853392518415
                          ],
                          [
                            0,
                            -2.279642907863491
                          ],
                          [
                            -4.482060072418056,
                            1.6614131098920335
                          ],
                          [
                            -2.7433364489170873,
                            0.6568850547759256
                          ],
                          [
                            -0.7024067058811873,
                            0.2838109644328041
                          ],
                          [
                            -0.21023034402429935,
                            -0.21023034402429935
                          ],
                          [
                            0,
                            0
                          ],
                          [
                            -0.5383761753622279,
                            0.9421371143088965
                          ],
                          [
                            0.26914570253110903,
                            1.2112828168400054
                          ],
                          [
                            0.06730761820777971,
                            1.3458980532555649
                          ],
                          [
                            0.7402142596855572,
                            1.4804285193711144
                          ],
                          [
                            -0.3364533207388888,
                            1.4132056714633445
                          ],
                          [
                            -0.05764380400666273,
                            0.16030063731852826
                          ],
                          [
                            -0.05900012880681949,
                            -0.015682505501812653
                          ],
                          [
                            0,
                            0
                          ],
                          [
                            0,
                            0
                          ],
                          [
                            -1.35632480015677,
                            -0.09723153411123846
                          ],
                          [
                            0,
                            0
                          ]
                        ],
                        "o": [
                          [
                            -1.0172436001175775,
                            -2.543109000293944
                          ],
                          [
                            -0.6955403115803936,
                            -0.154536256917862
                          ],
                          [
                            -0.7727660548893197,
                            0.11588100011339404
                          ],
                          [
                            -0.7341107980848518,
                            0.7341107980848518
                          ],
                          [
                            -0.8114213116937876,
                            1.3136853392518415
                          ],
                          [
                            -1.2751148527473835,
                            1.8546046236143634
                          ],
                          [
                            -1.2364595959429154,
                            1.3136853392518415
                          ],
                          [
                            0,
                            2.279642907863491
                          ],
                          [
                            1.9705703940277672,
                            -0.6568850547759256
                          ],
                          [
                            1.640644386389633,
                            -0.39282557024540454
                          ],
                          [
                            0.002034487200235155,
                            0.3048339988352341
                          ],
                          [
                            0.6056837935700076,
                            0.6056837935700076
                          ],
                          [
                            0,
                            0
                          ],
                          [
                            0.5383761753622279,
                            -0.9421371143088965
                          ],
                          [
                            -0.26914570253110903,
                            -1.2112828168400054
                          ],
                          [
                            -0.06730761820777971,
                            -1.3458980532555649
                          ],
                          [
                            -0.7402142596855572,
                            -1.4804285193711144
                          ],
                          [
                            0.03874002710447774,
                            -0.1627589760188124
                          ],
                          [
                            0.05883058820679989,
                            0.014580491601685277
                          ],
                          [
                            0.99520332211503,
                            0.26499195783062895
                          ],
                          [
                            0,
                            0
                          ],
                          [
                            0,
                            0
                          ],
                          [
                            1.35632480015677,
                            0.09723153411123846
                          ],
                          [
                            0,
                            0
                          ]
                        ],
                        "v": [
                          [
                            389.3137605525262,
                            -228.36577295100824
                          ],
                          [
                            381.8162513681596,
                            -230.11577102441052
                          ],
                          [
                            379.03332718913794,
                            -229.77863954127156
                          ],
                          [
                            376.58736495265526,
                            -228.60253639893563
                          ],
                          [
                            374.0339139757601,
                            -225.10584629383146
                          ],
                          [
                            369.48954773283486,
                            -221.8963579651605
                          ],
                          [
                            369.30330738371333,
                            -214.89704383395147
                          ],
                          [
                            366.17672440845195,
                            -208.48773099081066
                          ],
                          [
                            372.2429718474531,
                            -204.7784369732819
                          ],
                          [
                            375.9757472380845,
                            -208.97321049896678
                          ],
                          [
                            378.79868299871083,
                            -209.65739159034587
                          ],
                          [
                            378.92236286642515,
                            -208.63395975832756
                          ],
                          [
                            380.2586818757796,
                            -208.02480038245716
                          ],
                          [
                            379.7965142001262,
                            -210.07759796749443
                          ],
                          [
                            380.5138404788091,
                            -212.4834638520725
                          ],
                          [
                            378.9323657618263,
                            -214.6368837832214
                          ],
                          [
                            378.62956625019126,
                            -218.77545459999976
                          ],
                          [
                            378.2931129294524,
                            -221.77005021814588
                          ],
                          [
                            378.44069802176944,
                            -222.2545124827019
                          ],
                          [
                            378.6176136378899,
                            -222.20924514249666
                          ],
                          [
                            380.59945848181894,
                            -220.77544028813094
                          ],
                          [
                            382.41701848432905,
                            -226.30543080927012
                          ],
                          [
                            384.5094037994709,
                            -224.28442208673653
                          ],
                          [
                            386.24100671777103,
                            -224.28442208673653
                          ]
                        ],
                        "c": true
                      }
                    ]
                  },
                  {
                    "t": 16,
                    "s": [
                      {
                        "i": [
                          [
                            1.0172436001175775,
                            2.543109000293944
                          ],
                          [
                            3.145995373963628,
                            -0.244392774928248
                          ],
                          [
                            0.7727660548893197,
                            -0.11588100011339404
                          ],
                          [
                            0.7341107980848518,
                            -0.7341107980848518
                          ],
                          [
                            0.8114213116937876,
                            -1.3136853392518415
                          ],
                          [
                            1.5362073767775617,
                            -2.234460337958269
                          ],
                          [
                            1.2364595959429154,
                            -1.3136853392518415
                          ],
                          [
                            0,
                            -2.279642907863491
                          ],
                          [
                            -4.482060072418056,
                            1.6614131098920335
                          ],
                          [
                            -2.7433364489170873,
                            0.6568850547759256
                          ],
                          [
                            -0.7024067058811873,
                            0.2838109644328041
                          ],
                          [
                            -0.21023034402429935,
                            -0.21023034402429935
                          ],
                          [
                            0,
                            0
                          ],
                          [
                            -0.5383761753622279,
                            0.9421371143088965
                          ],
                          [
                            0.26914570253110903,
                            1.2112828168400054
                          ],
                          [
                            0.06730761820777971,
                            1.3458980532555649
                          ],
                          [
                            0.7402142596855572,
                            1.4804285193711144
                          ],
                          [
                            -0.3364533207388888,
                            1.4132056714633445
                          ],
                          [
                            -0.05764380400666273,
                            0.16030063731852826
                          ],
                          [
                            -0.05900012880681949,
                            -0.015682505501812653
                          ],
                          [
                            0,
                            0
                          ],
                          [
                            0,
                            0
                          ],
                          [
                            -1.35632480015677,
                            -0.09723153411123846
                          ],
                          [
                            0,
                            0
                          ]
                        ],
                        "o": [
                          [
                            -1.0172436001175775,
                            -2.543109000293944
                          ],
                          [
                            -0.6955403115803936,
                            -0.154536256917862
                          ],
                          [
                            -0.7727660548893197,
                            0.11588100011339404
                          ],
                          [
                            -0.7341107980848518,
                            0.7341107980848518
                          ],
                          [
                            -0.8114213116937876,
                            1.3136853392518415
                          ],
                          [
                            -1.2751148527473835,
                            1.8546046236143634
                          ],
                          [
                            -1.2364595959429154,
                            1.3136853392518415
                          ],
                          [
                            0,
                            2.279642907863491
                          ],
                          [
                            1.9705703940277672,
                            -0.6568850547759256
                          ],
                          [
                            1.640644386389633,
                            -0.39282557024540454
                          ],
                          [
                            0.002034487200235155,
                            0.3048339988352341
                          ],
                          [
                            0.6056837935700076,
                            0.6056837935700076
                          ],
                          [
                            0,
                            0
                          ],
                          [
                            0.5383761753622279,
                            -0.9421371143088965
                          ],
                          [
                            -0.26914570253110903,
                            -1.2112828168400054
                          ],
                          [
                            -0.06730761820777971,
                            -1.3458980532555649
                          ],
                          [
                            -0.7402142596855572,
                            -1.4804285193711144
                          ],
                          [
                            0.03874002710447774,
                            -0.1627589760188124
                          ],
                          [
                            0.05883058820679989,
                            0.014580491601685277
                          ],
                          [
                            0.99520332211503,
                            0.26499195783062895
                          ],
                          [
                            0,
                            0
                          ],
                          [
                            0,
                            0
                          ],
                          [
                            1.35632480015677,
                            0.09723153411123846
                          ],
                          [
                            0,
                            0
                          ]
                        ],
                        "v": [
                          [
                            389.087,
                            -228.086624353076
                          ],
                          [
                            381.6606978676416,
                            -229.97183105499388
                          ],
                          [
                            379.03332718913794,
                            -229.77863954127156
                          ],
                          [
                            376.32856122672536,
                            -229.0444439728867
                          ],
                          [
                            373.894382061944,
                            -225.21926895524456
                          ],
                          [
                            369.48954773283486,
                            -221.8963579651605
                          ],
                          [
                            368.67821119144105,
                            -215.1732254713834
                          ],
                          [
                            364.8916066603034,
                            -209.3774800597135
                          ],
                          [
                            370.95785409930454,
                            -205.66818604218477
                          ],
                          [
                            375.47856942852707,
                            -208.836560775351
                          ],
                          [
                            378.79868299871083,
                            -209.65739159034587
                          ],
                          [
                            379.06698099824183,
                            -208.88326921065638
                          ],
                          [
                            380.5138404788091,
                            -208.64769254692914
                          ],
                          [
                            379.8408490670313,
                            -210.06089821839248
                          ],
                          [
                            380.5138404788091,
                            -212.4834638520725
                          ],
                          [
                            378.9323657618263,
                            -214.6368837832214
                          ],
                          [
                            378.62956625019126,
                            -218.77545459999976
                          ],
                          [
                            378.2931129294524,
                            -221.77005021814588
                          ],
                          [
                            378.44069802176944,
                            -222.2545124827019
                          ],
                          [
                            378.6176136378899,
                            -222.20924514249666
                          ],
                          [
                            380.59945848181894,
                            -220.77544028813094
                          ],
                          [
                            382.41701848432905,
                            -226.30543080927012
                          ],
                          [
                            384.5094037994709,
                            -224.28442208673653
                          ],
                          [
                            386.24100671777103,
                            -224.28442208673653
                          ]
                        ],
                        "c": true
                      }
                    ]
                  }
                ],
                "a": 1
              }
            },
            {
              "ty": "fl",
              "nm": "F",
              "bm": 0,
              "c": {
                "a": 0,
                "k": [
                  0.239,
                  0.11,
                  0.137,
                  1
                ]
              },
              "o": {
                "a": 0,
                "k": 100
              },
              "r": 1
            },
            {
              "ty": "tr",
              "p": {
                "a": 0,
                "k": [
                  0,
                  0
                ],
                "ix": 2
              },
              "a": {
                "a": 0,
                "k": [
                  0,
                  0
                ],
                "ix": 1
              },
              "s": {
                "a": 0,
                "k": [
                  100,
                  100
                ],
                "ix": 3
              },
              "r": {
                "a": 0,
                "k": 0,
                "ix": 6
              },
              "o": {
                "a": 0,
                "k": 100,
                "ix": 7
              },
              "sk": {
                "a": 0,
                "k": 0,
                "ix": 4
              },
              "sa": {
                "a": 0,
                "k": 0,
                "ix": 5
              },
              "nm": "Transform"
            }
          ],
          "nm": "Group 1",
          "np": 15
        },
        {
          "ty": "st",
          "c": {
            "a": 0,
            "k": [
              0,
              0,
              0,
              1
            ]
          },
          "o": {
            "a": 0,
            "k": 100
          },
          "w": {
            "a": 0,
            "k": 4
          },
          "lc": 1,
          "lj": 1,
          "ml": 4,
          "nm": "Stroke 1"
        }
      ],
      "ip": 0,
      "op": 61,
      "st": 0,
      "ct": 1
    },
    {
      "ind": 4,
      "ty": 4,
      "nm": "Layer 9",
      "parent": 6,
      "sr": 1,
      "ks": {
        "o": {
          "a": 0,
          "k": 100
        },
        "r": {
          "a": 1,
          "k": [
            {
              "i": {
                "x": [
                  0.833
                ],
                "y": [
                  0.833
                ]
              },
              "o": {
                "x": [
                  0.167
                ],
                "y": [
                  0.167
                ]
              },
              "t": 0,
              "s": [
                30
              ]
            },
            {
              "i": {
                "x": [
                  0.833
                ],
                "y": [
                  0.833
                ]
              },
              "o": {
                "x": [
                  0.167
                ],
                "y": [
                  0.167
                ]
              },
              "t": 7.5,
              "s": [
                -30
              ]
            },
            {
              "i": {
                "x": [
                  0.833
                ],
                "y": [
                  0.833
                ]
              },
              "o": {
                "x": [
                  0.167
                ],
                "y": [
                  0.167
                ]
              },
              "t": 15,
              "s": [
                -30
              ]
            },
            {
              "i": {
                "x": [
                  0.833
                ],
                "y": [
                  0.833
                ]
              },
              "o": {
                "x": [
                  0.167
                ],
                "y": [
                  0.167
                ]
              },
              "t": 30,
              "s": [
                30
              ]
            },
            {
              "i": {
                "x": [
                  0.833
                ],
                "y": [
                  0.833
                ]
              },
              "o": {
                "x": [
                  0.167
                ],
                "y": [
                  0.167
                ]
              },
              "t": 37.5,
              "s": [
                -30
              ]
            },
            {
              "i": {
                "x": [
                  0.833
                ],
                "y": [
                  0.833
                ]
              },
              "o": {
                "x": [
                  0.167
                ],
                "y": [
                  0.167
                ]
              },
              "t": 45,
              "s": [
                -30
              ]
            },
            {
              "t": 60,
              "s": [
                30
              ]
            }
          ]
        },
        "p": {
          "a": 0,
          "k": [
            1.125,
            61.664,
            0
          ],
          "l": 2
        },
        "a": {
          "a": 0,
          "k": [
            2,
            -53,
            0
          ],
          "l": 2
        },
        "s": {
          "a": 0,
          "k": [
            100,
            100,
            100
          ],
          "l": 2
        }
      },
      "ao": 0,
      "shapes": [
        {
          "ty": "gr",
          "it": [
            {
              "ty": "sh",
              "nm": "P",
              "ind": 0,
              "ks": {
                "k": {
                  "i": [
                    [
                      0,
                      0
                    ],
                    [
                      0,
                      -33.977291866028715
                    ],
                    [
                      0,
                      0
                    ],
                    [
                      15.090057416267943,
                      6.342248803827752
                    ],
                    [
                      0,
                      0
                    ],
                    [
                      6.97443062200957,
                      -1.9858564593301438
                    ]
                  ],
                  "o": [
                    [
                      0,
                      0
                    ],
                    [
                      0,
                      0
                    ],
                    [
                      0,
                      0
                    ],
                    [
                      0,
                      0
                    ],
                    [
                      -7.065492822966507,
                      -1.6321148325358852
                    ],
                    [
                      0,
                      0
                    ]
                  ],
                  "v": [
                    [
                      -7.602976076555025,
                      -75.4299043062201
                    ],
                    [
                      -28.866000000000003,
                      -34.75078468899522
                    ],
                    [
                      32.866,
                      -34.75078468899522
                    ],
                    [
                      17.77594258373206,
                      -75.27404784688996
                    ],
                    [
                      14.232688995215312,
                      -76.09244019138757
                    ],
                    [
                      -7.171598086124403,
                      -75.55248803827752
                    ]
                  ],
                  "c": true
                },
                "a": 0
              }
            },
            {
              "ty": "fl",
              "nm": "F",
              "bm": 0,
              "c": {
                "a": 0,
                "k": [
                  0.918,
                  0.918,
                  0.918,
                  1
                ]
              },
              "o": {
                "a": 0,
                "k": 100
              },
              "r": 1
            },
            {
              "ty": "sh",
              "nm": "P",
              "ind": 0,
              "ks": {
                "k": {
                  "i": [
                    [
                      0,
                      0
                    ],
                    [
                      0,
                      -86.6912153110048
                    ],
                    [
                      0,
                      0
                    ],
                    [
                      17.497368421052634,
                      16.181052631578947
                    ]
                  ],
                  "o": [
                    [
                      0,
                      0
                    ],
                    [
                      23.06442105263158,
                      0
                    ],
                    [
                      0,
                      0
                    ],
                    [
                      -15.17353110047847,
                      -14.032334928229668
                    ]
                  ],
                  "v": [
                    [
                      -10.102516746411485,
                      -103.58563636363637
                    ],
                    [
                      -24.656708133971293,
                      -2.414363636363639
                    ],
                    [
                      24.34643062200957,
                      -2.414363636363639
                    ],
                    [
                      19.324583732057416,
                      -103.18811483253589
                    ]
                  ],
                  "c": true
                },
                "a": 0
              }
            },
            {
              "ty": "fl",
              "nm": "F",
              "bm": 0,
              "c": {
                "a": 0,
                "k": [
                  0.984,
                  0.627,
                  0.624,
                  1
                ]
              },
              "o": {
                "a": 0,
                "k": 100
              },
              "r": 1
            },
            {
              "ty": "tr",
              "p": {
                "a": 0,
                "k": [
                  0,
                  0
                ],
                "ix": 2
              },
              "a": {
                "a": 0,
                "k": [
                  0,
                  0
                ],
                "ix": 1
              },
              "s": {
                "a": 0,
                "k": [
                  100,
                  100
                ],
                "ix": 3
              },
              "r": {
                "a": 0,
                "k": 0,
                "ix": 6
              },
              "o": {
                "a": 0,
                "k": 100,
                "ix": 7
              },
              "sk": {
                "a": 0,
                "k": 0,
                "ix": 4
              },
              "sa": {
                "a": 0,
                "k": 0,
                "ix": 5
              },
              "nm": "Transform"
            }
          ],
          "nm": "Group 1",
          "np": 5
        },
        {
          "ty": "st",
          "c": {
            "a": 0,
            "k": [
              0,
              0,
              0,
              1
            ]
          },
          "o": {
            "a": 0,
            "k": 100
          },
          "w": {
            "a": 0,
            "k": 4
          },
          "lc": 1,
          "lj": 1,
          "ml": 4,
          "nm": "Stroke 1"
        }
      ],
      "ip": 0,
      "op": 61,
      "st": 15,
      "ct": 1
    },
    {
      "ind": 5,
      "ty": 4,
      "nm": "Layer 8",
      "parent": 4,
      "sr": 1,
      "ks": {
        "o": {
          "a": 0,
          "k": 100
        },
        "r": {
          "a": 1,
          "k": [
            {
              "i": {
                "x": [
                  0.833
                ],
                "y": [
                  0.833
                ]
              },
              "o": {
                "x": [
                  0.167
                ],
                "y": [
                  0.167
                ]
              },
              "t": 0,
              "s": [
                30
              ]
            },
            {
              "i": {
                "x": [
                  0.833
                ],
                "y": [
                  0.833
                ]
              },
              "o": {
                "x": [
                  0.167
                ],
                "y": [
                  0.167
                ]
              },
              "t": 7.5,
              "s": [
                80
              ]
            },
            {
              "i": {
                "x": [
                  0.833
                ],
                "y": [
                  0.833
                ]
              },
              "o": {
                "x": [
                  0.167
                ],
                "y": [
                  0.167
                ]
              },
              "t": 15,
              "s": [
                0
              ]
            },
            {
              "i": {
                "x": [
                  0.833
                ],
                "y": [
                  0.833
                ]
              },
              "o": {
                "x": [
                  0.167
                ],
                "y": [
                  0.167
                ]
              },
              "t": 30,
              "s": [
                30
              ]
            },
            {
              "i": {
                "x": [
                  0.833
                ],
                "y": [
                  0.833
                ]
              },
              "o": {
                "x": [
                  0.167
                ],
                "y": [
                  0.167
                ]
              },
              "t": 37.5,
              "s": [
                80
              ]
            },
            {
              "i": {
                "x": [
                  0.833
                ],
                "y": [
                  0.833
                ]
              },
              "o": {
                "x": [
                  0.167
                ],
                "y": [
                  0.167
                ]
              },
              "t": 45,
              "s": [
                0
              ]
            },
            {
              "t": 60,
              "s": [
                30
              ]
            }
          ]
        },
        "p": {
          "a": 0,
          "k": [
            -0.5,
            48.51,
            0
          ],
          "l": 2
        },
        "a": {
          "a": 0,
          "k": [
            -0.5,
            -52.5,
            0
          ],
          "l": 2
        },
        "s": {
          "a": 0,
          "k": [
            100,
            100,
            100
          ],
          "l": 2
        }
      },
      "ao": 0,
      "shapes": [
        {
          "ty": "gr",
          "it": [
            {
              "ty": "sh",
              "nm": "P",
              "ind": 0,
              "ks": {
                "k": {
                  "i": [
                    [
                      0,
                      -20.297594369075327
                    ],
                    [
                      13.895178520747008,
                      0
                    ],
                    [
                      0,
                      20.297594369075327
                    ],
                    [
                      -13.895178520747008,
                      0
                    ]
                  ],
                  "o": [
                    [
                      0,
                      20.297594369075327
                    ],
                    [
                      -13.895178520747008,
                      0
                    ],
                    [
                      0,
                      -20.297594369075327
                    ],
                    [
                      13.895178520747008,
                      0
                    ]
                  ],
                  "v": [
                    [
                      23.42019526593631,
                      -51.265792132599195
                    ],
                    [
                      -1.7399023670318445,
                      -14.51409093489243
                    ],
                    [
                      -26.900000000000002,
                      -51.265792132599195
                    ],
                    [
                      -1.7399023670318445,
                      -88.01749333030597
                    ]
                  ],
                  "c": true
                },
                "a": 0
              }
            },
            {
              "ty": "fl",
              "nm": "F",
              "bm": 0,
              "c": {
                "a": 0,
                "k": [
                  0.867,
                  0.553,
                  0.549,
                  1
                ]
              },
              "o": {
                "a": 0,
                "k": 100
              },
              "r": 1
            },
            {
              "ty": "sh",
              "nm": "P",
              "ind": 0,
              "ks": {
                "k": {
                  "i": [
                    [
                      0,
                      0
                    ],
                    [
                      0,
                      89.02121360049954
                    ],
                    [
                      0,
                      0
                    ],
                    [
                      -12.30071862405631,
                      -16.61595050235568
                    ]
                  ],
                  "o": [
                    [
                      0,
                      0
                    ],
                    [
                      -16.21433842311404,
                      0
                    ],
                    [
                      0,
